<?xml version="1.0"?>
<opencv_storage>
<stage4>
  <maxWeakCount>6</maxWeakCount>
  <stageThreshold>-1.3993976116180420e+00</stageThreshold>
  <weakClassifiers>
    <_>
      <internalNodes>
        0 -1 242 -2.1158361807465553e-02</internalNodes>
      <leafValues>
        -6.9902914762496948e-01 5.6140351295471191e-01</leafValues></_>
    <_>
      <internalNodes>
        0 -1 153367 6.0711591504514217e-04</internalNodes>
      <leafValues>
        -7.6109158992767334e-01 4.7298011183738708e-01</leafValues></_>
    <_>
      <internalNodes>
        0 -1 160189 8.4695022087544203e-04</internalNodes>
      <leafValues>
        -5.1364439725875854e-01 6.2726289033889771e-01</leafValues></_>
    <_>
      <internalNodes>
        0 -1 106801 2.4911705986596644e-04</internalNodes>
      <leafValues>
        -6.3498061895370483e-01 4.8264890909194946e-01</leafValues></_>
    <_>
      <internalNodes>
        0 -1 82885 1.5680617070756853e-04</internalNodes>
      <leafValues>
        -4.3132054805755615e-01 6.7460823059082031e-01</leafValues></_>
    <_>
      <internalNodes>
        0 -1 48761 -5.9719348791986704e-04</internalNodes>
      <leafValues>
        5.3473985195159912e-01 -5.0219142436981201e-01</leafValues></_></weakClassifiers></stage4>
</opencv_storage>
